function [y1] = myNeuralNetworkFunction(x1)
%MYNEURALNETWORKFUNCTION neural network simulation function.
%
% Generated by Neural Network Toolbox function genFunction, 08-Feb-2016 17:56:24.
%
% [y1] = myNeuralNetworkFunction(x1) takes these arguments:
%   x = 75xQ matrix, input #1
% and returns:
%   y = 1xQ matrix, output #1
% where Q is the number of samples.

%#ok<*RPMT0>

% ===== NEURAL NETWORK CONSTANTS =====

% Input 1
x1_step1_xoffset = [-725.322;-699.543;-844.371;-988.353;-936.767;-1125.82;-1049.01;-1121.03;-743.594;-640.308;-817.172;-893.147;-788.217;-835.713;-921.062;-935.828;-647.283;-760.71;-869.996;-838.95;-777.41;-1195.49;-1087.36;-899.459;-889.83;-1447.79;-1243.66;-1065.25;-1049.74;-1199.52;-1278.95;-1273.51;-1363.28;-1101.48;-1140.07;-1256.3;-1269.28;-1418.75;-1637.19;-1815.79;-1868.41;-1440.51;-1595.36;-1829.31;-1903.51;-1101.76;-1333.3;-1299.68;-1284.63;-1277.76;1072.83;1048.6;0;254.088;0;275.774;508.213;589.417;0;271.09;496.718;585.233;847.382;1012.95;891.829;841.967;1036.31;945.294;771.986;714.23;0;576.962;584.069;566.529;551.619];
x1_step1_gain = [0.000897778089007515;0.000935925159680531;0.000884075197668163;0.000831288709478312;0.000865985684390651;0.000788939074179996;0.000798757133899652;0.000769894062576989;0.000866028057577009;0.000879225999767884;0.000800053763612915;0.000767319258907713;0.000880813977813177;0.000885318889650755;0.000858003802672853;0.000873241183102084;0.000935469884184151;0.00088781561845236;0.00082835423409125;0.000847016173773838;0.000910133425560187;0.000739497289742433;0.000784796914178533;0.000766442392848479;0.000772466214258954;0.00117223674493301;0.0011097750652409;0.0010409829794078;0.000977175620445446;0.00102506698812767;0.00109691159057117;0.00109686226097315;0.00107348083675684;0.00108746834107792;0.00117844135810653;0.00105669875684675;0.00103010534372298;0.00119445200930717;0.00133074459152129;0.00119566737968298;0.00121857522965573;0.00117791387918255;0.00136695402318491;0.0011518705629226;0.00105842842430702;0.00106136718953152;0.00105823633274548;0.00108947949572352;0.000994646316203037;0.00100408612849993;0.000639096062529159;0.000651166727984867;0.000490108387469889;0.000508851212414341;0.000470644712659637;0.000510793579120393;0.000534855603695531;0.000539388435997382;0.000493450675904063;0.000513150771393897;0.000526666161067152;0.000533207212054109;0.000601896938391033;0.000623084016648805;0.000541122466566072;0.000551824151301353;0.000639263568369239;0.000592130117040439;0.000522548762944186;0.000520487696972063;0.000491654170456501;0.000530114759243081;0.000540160822081558;0.000518510702449782;0.000519834141718743];
x1_step1_ymin = -1;

% Layer 1
b1 = [-1.3985290601880533412;1.709271403061824568;-1.9495656569501715882;-1.1173512506591596338;2.8184324812465963994;-1.5718303659616905676;2.8005498240130197729;0.80373353304385630747;1.7497491578521302547;0.72702838779267953129;0.41382880865624210864;-0.12335040503410370227;1.9763442353857461065;-0.39814981666412718742;1.0063913654652838492;0.22609498803851446613;0.48979211559785962304;-0.28411284889878518634;0.58736922377927047734;0.72941320207008575327;-1.3477315572468111515;0.85659999208408121874;1.8738782243906337843;0.87595407340998610035;0.94956853894190818011;2.960031526318541939;0.8412491361120063571;3.1734588567903991851;4.1419902641446286751;1.4241351501165611104];
IW1_1 = [0.045865734331573392024 -0.24191195395652009825 0.033447039918124310542 0.019223129107457430365 0.06388166825976900054 0.21453623531687668335 -0.29328976653452420997 -0.25083292179769822727 -0.51506561561840269459 -0.51035102538303589448 -0.43179369226729247266 -0.62633933473270375636 0.047511070037369880492 0.071409484167064260496 0.43474800390867873734 0.42094355916151182662 -0.18863068896175982925 -0.4190860415478040446 -0.42698922657687904403 -0.26298856318272112453 0.056592770536146828897 -0.043323017674192713933 0.35396572652329238995 -0.52820082820320668482 -0.089798313231234244691 0.38758441595726356166 0.61834670231643051874 0.79520819201952153144 0.55702478723364756696 0.50430145555353078635 0.56392878490510456313 0.38991445557589077264 0.35201113341183187799 0.53199696867796242294 0.49077965785914801078 0.49054065323243439822 0.56194708970908902046 0.37636724182246816817 0.21419048280111743776 0.12192250927101781766 0.38952576814308420561 0.68289773298696532233 -0.41594102988438969026 0.086991340818883114427 0.41303635721557557803 0.42821917938222120448 0.32422010274408985531 0.38739446015777523336 0.74620551500736953532 0.70791310094193771185 -0.01441343645122612413 0.29233418808825262225 0.046055941855745234637 0.34706072097525830777 -0.28252024856791224661 -0.018450641406285932244 -0.0036497211543634749953 0.1375745803753667118 0.10691459285377807875 -0.18224849452311528419 0.504899102481327966 0.026055028648683635495 -0.060700619723063099775 -0.023531542248783954285 -0.20997937423412790792 -0.55093307780773581595 -0.20504200508900896627 0.42985883381117173663 -0.082243136467481825491 0.14990051741618762304 0.35420964058838627642 0.41607987881960328824 0.33744143424440464774 0.11515582694989809354 0.25461945624654092057;-0.27734461944398774991 0.1434640391417724703 -0.11919578029233586502 0.18209910941042570243 0.16021012884454349789 -0.068254210757217562144 0.016057072879756217887 -0.016618687227685710606 -0.3422424955746809494 0.20296129820168817837 0.17657296892527282739 -0.32053614580872968887 0.25311370580369241257 -0.25492885454994584915 0.24721233284254998108 0.021789208607618001934 -0.11580972238327955082 -0.37910682559318492624 -0.27149377590533202431 -0.1256369414475911328 0.15926284437707477482 -0.12033715076787893095 -0.013251520198207137474 -0.094803954524650430047 -0.03240208308327505865 -0.16126270725884633839 -0.09462395535193569851 -0.26794759337941492783 -0.095970426226997862518 -0.095745585042801256703 0.17542894455601520942 0.32350998057632390781 0.23271849995075871709 -0.37429341941583893494 -0.092701602494047893877 -0.065109703571785373932 0.38974025600106754208 -0.20163669972534040142 -0.28716032923050344161 -0.21138203886083634098 0.038809914811295163906 -0.064882634583477691304 -0.2493715024994085927 0.039805160983528306562 -0.074176193782413579747 -0.21966456234560260974 0.079084492505505241122 -0.18076693678942448718 0.23749280341664691374 0.31115825683133141455 -0.11701380427681171148 -0.3203164957993610007 0.20376146927486338267 0.2236065906687378646 -0.34421166637917327558 -0.25352579470397562655 0.045779990547257044808 -0.12830792770412977055 -0.063148437425628645148 -0.085274770634331767405 0.0021908606129102496662 -0.0073924143907195183009 0.12357137757111695542 -0.065375442509590778184 0.062305136849271247623 -0.08371557588361919211 -0.030991125221367894077 -0.29792865986697242286 0.22462533497632922175 0.12959517924729452298 0.08366217554728379302 0.033806148345543934886 -0.14960618197333727664 -0.35523105580378072643 -0.061786885561570366321;-0.25343362451789513967 -0.4907511590532785406 -0.23732477242299712672 -0.1239014546214121798 -0.39100199217634684645 -0.35540910036252104653 0.036994794080784883239 0.19604147208793321067 0.17084798880167825774 -0.30715106844024525623 -0.31809934804996287117 -0.49404599516527653025 -0.26329598470729587145 0.23685792434765978731 -0.63710794733448739002 -0.62100049766610398994 -0.76780192755183329645 -0.13541639762315421658 -0.21879851097756694567 -0.53934877495479616183 -0.13063072719463786342 0.30009564487403561639 -0.26539865202947982015 0.041629831608786624364 -0.2055082295882702248 -0.25212995981113339727 -0.90388695207021096945 -0.82237130967133664772 -0.68855287685426525002 -1.39607009143558769 -1.349670931361812265 -0.078760471357072453502 0.16354079317698849705 -0.66781959848187355533 -0.59831596166458156372 0.085781415045196540703 -0.04901449089433113776 -0.48163378063248885042 0.16251195785036023911 -0.83179017392534460029 0.27567741224847380765 -0.32031135057569010138 0.35497331493992767548 -0.073534766662855174935 0.255199218752377055 -0.83652292617766377258 0.58428952998205085922 -0.22316842755098056927 0.37765804033396843664 0.036455587959792118413 0.65378017200556826083 0.48346142092617117036 0.11499093064292925659 0.52369812303417351274 0.60703307266544281884 0.33087153114648448771 0.44797260736118382773 -0.14688810080802836011 0.27269337302290141967 0.87441247250691300774 0.57007770353600306645 0.23048005623530781749 -0.18041649720862365514 -0.20748290326620266733 0.43748277633545751275 0.29278425751736614213 0.92263885164365055935 0.36097020422609682466 0.22915644721761116442 0.32215990658631360466 0.20221984605491358233 0.3928953178743211927 0.25676703563454561507 0.23335978560703918294 0.27996887603945019851;0.090815903908833373048 -0.40284444915706996149 -0.064373832608588268944 -0.18086200897524579156 -0.074201110601462907934 -0.24637619126753312893 -0.03174430722734544047 -0.40463957719829307669 0.047034235486536214721 -0.37730955734051974115 -0.091151952425250051815 -0.050831754118046398871 -0.36131538773707955192 -0.092939121271677457847 0.24215880503613185226 -0.18155963191037727267 0.16208665253245446713 -0.54091740810228516878 -0.25331463004803134176 -0.20735979955228725502 -0.22274811254221776879 0.087303612087615001247 0.034756454906230666024 -0.37204081484467227403 -0.053728382198228771816 -0.16140505548783767864 -0.16392655569255049075 0.08165823265512318907 -0.031897136854515770188 -0.14476855009937650287 0.052284075463634858971 -0.17696212140685063652 -0.028832301419576523982 -0.042793337194467033491 0.065531492723782086562 0.084938874839008776663 -0.32761880132741533211 0.12188784172218113111 0.30446594862693776573 0.2271498043570000791 0.051357288029547705499 -0.056986738033315761931 0.18079898570137056812 0.24684541379018046237 -0.09854468742861692554 0.13180309319616886898 -0.022160224185235048722 0.14215006243034727929 -0.42193787875403249155 0.017886131885075203657 0.010326961033900797921 0.47721276598615519626 0.18714255519741165856 0.42003337355641640061 -0.17549448330712372202 0.26496057192648964085 -0.0012723255706866237573 0.12761417406820249609 -0.048669256052573293958 0.291061622905155859 0.31879302372721884939 0.34187364721449209348 0.54993357906620976561 0.0035652609974582399194 0.34836959372859754858 0.025060329267728827934 0.099886674047354684358 0.39269414867133967117 0.053348213964187429781 -0.27014765790285327762 0.24559671293436616257 -0.053991704786918670589 0.2184652535381821914 0.015173628969545129713 0.23494390762206740497;-0.67541621564448062198 0.23996993510646857928 0.74677721375550021321 0.77037842754828522729 -0.43336105500803129287 0.52016338482091994955 0.31896512764761875136 0.29372524542756300869 -0.51600122043153173745 -0.77193586434677563535 -0.33696061016130607335 -0.44607253375572414322 -0.1821612194347367597 -0.17370718608837310004 -1.6427837434553964613 -0.40488383495632940257 -0.63133970474876321965 1.3215019167298132086 -0.45251541957722796194 -0.68509662940657478636 0.68215207232044505758 0.081882346793400395679 0.06754066149732199098 -0.086880521082391470866 -0.37867957280090708272 0.77855100714593106215 -0.25642601420187804973 0.086269492711274584074 0.89347761423654281643 -1.2927418078542152191 0.1350946641921619007 -0.059114017848067100525 0.15961064433623442516 0.38021828136229907091 1.1901371134543787811 0.0059553276026236921098 -0.22223356579807329592 0.7833376474841378112 0.35699750286488224349 -2.2143487305601499138 0.090540013639135996648 0.90255415462713040053 -0.4972876757252824298 -0.60828956307664572289 -0.51504399102136977362 0.38361977719158840694 0.2194860055613497285 0.54332159280405734059 0.034978067301960333313 -0.12312884826070728816 0.37560774620198306151 -0.12006732165361287679 -0.5064771071356922727 0.22767730716268519409 1.6112265106741816556 1.3404602556846390016 1.1885405976651135518 0.79914477784084891887 -0.034057769847323254853 -0.36748780019300308908 -0.10745706072370217465 0.74196789661529072291 -0.14396637363023709333 0.066362013606201322724 0.03759427981424872528 0.93526325147001354576 0.55046344733993801679 0.33259690455414842036 0.62134474475424761319 0.83283307589921740099 -0.33251185424322732276 0.53021071688640242225 0.49729925913846995122 0.30794088266539709764 0.60428074295026035223;0.36712951982303049236 0.25898080729159500546 -0.26394191921762172326 -0.47962539617456889651 -0.3340216901431978247 0.030535804840230097029 -0.1414855966172603452 -0.1584502328794160364 0.077827154780984064697 -0.14882178662555856086 -0.3407568181691914555 -0.35918513781744298985 0.10708621840751164633 0.732457190408137504 0.68327291114170540798 0.91011123098591462099 0.1281991789544946192 0.61187033732016760101 0.48425431180293609934 0.25948043796925757132 -0.20066566872777213959 -0.16521108555806443552 0.19919678541730814758 -0.18267778653189109539 -0.37324899846503123424 0.21751500909282286966 0.37333819886860669657 0.21443696917430848936 -0.10377245073181377844 0.35878490876493207562 -0.01381680632806649503 -0.00089330758327618806774 0.23988559872627399083 0.20128065314283263842 0.33060184311695500758 0.094633487248377182177 0.19302423775121632654 0.27598644024758783866 -0.55497223501803583101 0.11394459632356382373 0.13605822761222433059 0.33839665159499987546 -0.81673634135939743306 0.046894508640312485004 0.084239964033126182863 -0.10548653373516349296 -0.07808032119008170846 0.26781216866616636141 -0.1060542877817344104 0.10959017724748780498 0.041404795003123918973 0.26483325362191956209 -0.3139989643732026825 0.15466532259390150528 0.14983957597852473609 0.015130740017167387465 0.33245185410520106117 0.38973399166430217067 -0.27154123622002701577 -0.28443286681636464897 -0.14626108834200329811 0.41767624142680981336 0.093693812992105163229 0.84735069099282300797 0.7395771387872608349 0.79681690037474517396 -0.12908799676427629155 0.29008782207654065788 0.65754141761739615113 0.98174620835576809075 -0.28232294644755751012 0.29601047855176942925 0.41000806218604085585 0.3122653189432661458 0.23629448483108464463;-0.094492514942913136133 -0.004727187036634619699 0.57064184214028568221 0.58249890962996109245 0.62155580859625991774 0.75602433967203042098 0.14757111753094689921 0.42058927515968363986 0.18551222014041882091 0.12707297431213032679 -0.27534567204104076765 -0.27781414241904578422 0.14010424948238134335 0.78477402083889258311 0.42558437741276655686 -0.062067339621273046046 0.41649928945928871293 -1.2992451330361953765 -1.6677544404964110836 -1.751414569703862778 0.3271196882902118741 0.25789478875110194434 0.78950906474714610539 -0.19588697221026632467 -0.19229889577674921797 0.053655008818749072574 -0.16485795681408643709 -0.16648806645952018979 -0.22455684550862345383 -0.42920145492582334468 -0.25717303468740471128 0.4404002417728594132 -0.20545629273089915934 -0.52914366920627253776 -0.50568275613144320069 0.52422008206385384277 0.1936063602970302111 0.042050043541694996641 -1.4535237231569857475 -1.2909922717509849655 -1.3328275991217624075 -0.48295507744870957989 -2.5650150142759851057 0.41852346690238406701 -0.2779007362783965096 -0.28196482688274848716 -0.057554804955380851894 -0.022829187202420601899 0.54895827077525982673 0.48849205735445655474 -0.72781896556882730298 -0.11329457866506603692 0.46595660245654174636 1.1107710940562443014 0.010274404117444036269 -0.027893136282346523563 -0.35873191222690492541 -0.30824197615169612874 0.48190508711965696076 0.34045203488956227167 -0.3190637827956787631 -0.59194576002958287919 -0.46207383216076819421 0.61907869306540297405 -0.13031733878822271411 -0.29614292992931801063 -0.58724784694059617429 0.23851293678313342794 0.2658839000719452339 -0.19385055121586222682 0.72177438986072051108 -0.40541845007151511293 -0.35348682730822361675 -0.65781747539755464071 -0.54481545898194227995;-0.246694580280970438 0.075126341896011541999 0.083935021898043110644 0.015985299273246919571 -0.14203116247480065959 -0.084027995297460508772 0.11358722520968643488 0.20784909686515326555 -0.15846202059555108965 0.11810663256720400904 -0.32604402462204984392 -0.20134123889529514928 -0.010817196619621317205 0.10332811427887948763 0.18337353110093676523 -0.088398296184380026341 0.020491487695804520841 0.12443285031601644675 -0.17711772361309646717 0.054796748082870112839 0.027488028514520767426 -0.066030325096779474148 0.072103533290633944897 -0.3937632390850958064 0.022273841627137035831 -0.20206674450576225799 -0.081089276784150024491 0.050664198615350181099 -0.18091334131902747639 -0.037892124732084885019 -0.16323520559299808941 -0.20469013852806047793 0.082396899621050179174 0.20332224662691406047 -0.08741512997030988219 0.072481620951530212338 0.15594479460799767767 0.25065028812042172701 0.076103950444713006074 -0.23179036627960308836 0.076112332322643624916 -0.30542395563393648361 -0.022882528852037606337 -0.034668931216175660759 -0.13592425563085291929 -0.21281233447390207614 -0.13353098961824777513 -0.056830118663528189638 0.019280609085038240974 -0.14352695719177777089 -0.34338368687584236438 -0.26869256425099791175 -0.068438617873886636866 -0.30447803922715599434 0.21579929787064766611 0.26111715182633926657 0.088795661888671675865 0.30040497071863464518 -0.15310437483464342523 0.10745573151358164821 0.20741334506785613634 -0.22457203892039664939 0.0066735232260108695232 0.11745188703675145392 0.1062364424649456518 0.10303982298106492688 -0.32234360789230209754 -0.20111421458911596383 -0.21870086100630575787 0.055612312389852508465 0.017877349950695585468 0.13432459872317328853 0.32398269014589631265 0.29392349057820588154 -0.1092322844694611772;-0.3551048918378162389 0.20883448270161625304 -0.054069708531190890932 0.085413441967042202929 -0.03046151699481023864 0.052360871366053475529 -0.21305761055842700746 0.22406058351815236196 -0.15022706452753203932 0.11733691256586596674 0.051823673514788386185 0.087358118114114854946 0.018803089942058006517 -0.56274153104479140985 -0.43107940904599695298 -0.38755649848240703026 -0.28914977510832529095 0.21111432858731568607 -0.15505534312182878143 0.065802159133137305691 -0.057024496076474646966 0.29902071238908889406 -0.42564244737827744425 0.38703848406347834965 0.39885189122690983821 0.17381399867104016521 0.034622086558488196495 -0.10099080907283927711 0.39932781620771690134 -0.32014184926018052213 -0.20584656288802694046 0.10304079455053752334 -0.037211468878639408775 0.14004062097181887991 0.24013187409853473109 0.1109264410601940587 0.17704756674552643569 -0.079962122927092163516 0.78621859677050542903 -0.19998909412177959255 0.37459231510571705526 -0.016111318861816135289 0.44513634118591216549 -0.37478830810743135604 -0.045787052532711862429 0.23670413254205929787 -0.15441402764611450449 -0.044251227828809323872 -0.23887071173093182841 0.0093116029593883209436 0.021082966894374027822 0.098353187904040434431 0.44905993427489865333 0.42107691420120196835 0.53861695604549908456 0.21944321835921279384 0.2360927185797078165 -0.012773946760144448687 0.59872035997208361557 0.51971043964895791145 0.26021681049845063471 0.41040275443481555318 0.26291917741245623974 0.35678058026756670484 0.50648976671159051666 0.72224529743062126919 0.016104753579638475536 -0.15146153245423987777 0.16015431705480559499 -0.13121058540545402216 0.35547765614754556207 -0.0070589481126178627371 0.34384993935932356424 0.24496568019864550791 0.36993619473226579952;0.01597289250372891517 0.072133164714564129705 0.67646635026288559622 -0.23455608200676836272 -0.16858433387588411811 0.60154199439075572986 0.27198030803426720414 0.36955222431393730531 -0.27968607097147041296 0.48081850457108749053 0.31974824567485132798 0.43833352923139368151 0.20181245332290986827 0.29113331793362584587 -1.5795405444590364663 -1.0073002715783223593 -0.18247734783416974524 1.1667846783070801031 0.048778190358545983618 -0.34420114670060963924 0.73181742311791120326 0.31715974538649893688 -0.12385464312743318938 0.71703288927625796756 0.3839996061968724006 -0.0031411979022574658751 -0.26346293857898067658 -0.92563401512464005272 -0.32590314135540149332 -0.76257558571948913517 0.17219679290565009788 0.32638117834161484154 0.41326600222480452951 -0.4964395512412166922 0.30604539890090171061 0.027161774149497615316 0.022240858917017700125 0.10990656928826975092 0.90732708332246891914 -1.0445997252281444823 0.80294409235245600698 0.22541868569493025976 -0.40060263153087366517 0.35485808091057108316 0.0011647863793684161415 -0.51067803909300568677 0.49233876736651388528 0.81735956806723442103 0.016474705894445999116 0.14820150232848619543 -0.036237493620943264649 -0.10992467959458340765 -0.95936457718195744526 -0.79237652501574995512 0.38321633871198529375 -0.15767512960967866587 -0.15724143493115552705 -0.42774012243309139647 -0.28807693716230092784 -0.7927638737294325777 -0.68252752386835024989 -0.4636689017845410099 -0.29341826033889262249 0.18089451166822329009 0.32149594692762750725 0.089190725939523818333 0.014081373851324588409 -0.17326942270662121226 0.86014921412466094353 0.58625661939415396606 -0.77278431722902485301 -0.36192823016088171428 -0.48928914788276073322 -0.59911976191640381462 -0.66818807502550903177;0.46290052043341756161 0.473228231911120234 0.68702714660990671369 0.49131878334010076204 0.55415826237629695061 0.32801848480103618089 0.25225310271105688686 -0.31054357211698652153 0.14498596446149686345 -0.42723821275373541351 -0.70287463516222792315 -0.29590462457078575698 0.035278741895822619823 0.0036289692026327717914 0.24095444462460074986 0.12222780898580067055 0.47764686323905269916 -0.39428499459562732499 -1.0501488396921017099 -0.19803251393148013637 0.61381342038211395007 0.077888346224193646949 0.62945932654544833884 -0.61815522916461851377 -0.2634351191520176716 0.039324139550753048344 0.046252012631692658584 0.17968045755129469221 0.24060850633029179368 0.5344862621587141982 0.55333681911330911962 -0.39418293019130223875 -0.28700742078652913269 -0.34686101067131619446 -0.034886070568265196978 -0.23917104293057411812 -0.23601693761307573904 0.16069550094121737294 1.0883906750051421941 0.57818500251440729798 -0.055208688347916659578 0.095828721735516195213 0.13223263689728637083 -0.04031781239656720417 -0.32467487669925393368 0.34327566058870362387 -0.47649334925073660862 -0.48853777578839641116 0.036978868056416147603 -0.086290925142981950158 0.37882315874500205322 0.2262790131073946498 0.63213740481992819475 0.4094544661676275954 -0.32259020973790691889 0.50845825743993444679 0.6292759948365389544 0.59921304673257536066 0.17519654247172666839 0.19609953614115935294 0.64206468215477419115 0.41632875785733147733 0.073516569445538887395 -0.88449737110720860755 -1.6144324297769911958 -1.5723471388113308134 -0.23920833793784271326 -0.31452527628079540722 -1.1106573170414224538 -1.3060796589812564417 0.66140277947185333041 0.78258340855458152774 0.59117064405614405675 0.30253479404692118493 0.10858982268632141888;0.21659137318429638741 0.066399780759110918482 0.31739137706364523028 1.0335066388692373263 0.027472375807549277715 0.63769408094118840147 0.30826047202341594344 -0.23649225444590074585 0.26516862775792449103 0.11159423349555129545 -0.68409204406213819372 -0.094924290319998438914 -0.34875939975321712527 -0.76176045596905339607 0.76579572682099017467 0.072835593388091326994 -0.11564659026376820916 0.055731144901107983192 0.013115686318831993457 0.33012265999668088945 0.53885187077901874897 -0.106077910990803298 0.91239394511207749794 -0.53147895712226767007 0.15118496980987303213 0.11888968416440984233 0.57237554624298137007 0.47410280907584623211 0.036145938544378856949 0.37323629069135666469 -0.08908679820359344248 0.017658334387677172839 -0.27216883298816013648 -0.35665369933217810905 -0.44761872103298977477 0.092915201442964057144 -0.16858733136349449144 -0.28456482297969754036 -1.6226658254444137341 -0.51502408598588367283 -1.5273512723476998509 0.47813080338132513125 -1.0795568833463831115 -0.70307741053372618811 -1.0919463443375241329 -0.026399174944019061784 0.035682445597726444864 -0.097896554635761828811 -0.020793692318743037944 0.26265513137747609207 0.029333034041561862476 0.1434073454325044128 0.028273787550626820059 0.306777782217849182 0.042584138806543450628 0.5344896149751113823 0.95226954962425403028 0.98877339985468826189 0.19192135481734895475 -0.32659800274784289709 0.16734340983305304174 -0.71872689583060089813 0.34436036304578926392 -0.40023797883445466628 -0.8552134433195028862 -0.97280176627860470706 -0.20197526149014194408 0.21938339357030742227 -0.29095723469040740694 -0.65840533119635624715 0.074427003511554720716 1.1259778027867892725 0.67851535820360653339 -0.46530566753002544633 -0.29395491144427948749;0.063494193409773275194 0.2207180460378916631 0.29672188569513013867 0.4009174329329766584 0.7641383427370835868 0.7417810344694680813 0.53271001473013346317 -0.11891325042020817193 -0.097844112004437572283 -0.48918751312652369867 -0.61213202286636014815 -0.39999673722894724115 -0.0065176434030213290308 0.63820926806567168654 0.43741449701870627198 -0.26921364169469053085 0.26910559162527458721 -0.79615695790011198341 -1.4996030412283229971 -1.3971875282931609519 0.19146542265049115716 0.53871182311562748612 0.88849440412570734882 -0.1691340160737590248 0.025537965727901901225 -0.29813973359647694128 -0.03817619853817209169 -0.46349359482955376777 -0.25323152965023304484 0.12265515757151906895 0.16997688878265543311 0.66866550186521600541 0.26461688918847964258 -0.60882208667524262413 -0.38401383893326634933 0.26515172287398597328 0.027252652488797796115 -0.11116133286362955834 -0.49963740983621329761 -0.77365915251366057515 -0.79855823710973705687 -0.36061760866490522037 -1.5401506326737675057 -0.098918642196946016121 -0.15421776891719538027 -0.22603037152863961201 0.29969132518784236119 -0.038632723853258589541 0.24229618005255915136 -0.21852957215313667527 -0.43648064877266945505 0.11122107714761357566 0.42334839955509029341 0.87377989298270031249 0.27949741797588462111 0.098148700080044712357 0.33149331268286474916 0.10985149835694736631 0.48220433516343025326 -0.048091187277653123233 -0.20462959093098448404 -0.12938168919033474213 -0.2262041452276947473 0.20750423485106492261 -0.70090424412534357845 -0.44713374908508957128 -0.38217712358634758907 -0.077344577824372401365 -0.46180965016895014763 -0.23654342662786512208 0.81862875962664716223 0.17941776173926793359 0.34089100110772302399 -0.22753322957832272655 -0.26817253674794278018;-0.29072338413085385689 -0.60446628134778102037 -0.25791405387391658222 -0.31838515784436888234 0.084962877712878540071 -0.26215224113284923968 -0.42957339795937327098 -0.15837096482333831715 -0.7674591020267055308 -0.094005778462632624826 0.12759429795223481419 0.097526142384002173502 -0.41342069582862733812 -0.80696065184015264293 -1.166990173421992516 -0.67514284159533177743 -0.79459137013005964878 -0.3364507111665578365 -0.28548555549765447514 -0.43506495004996342812 -0.6146457085310171875 -0.5195548556984457278 -0.72848825860447652403 0.48831304683172471748 0.55377349328817038199 -0.59698146620366776549 -0.9041133244293411142 -0.80661727468704802479 -0.69627649431521132506 -0.31190647667361354189 0.19354843148675621167 0.29418467735214420822 0.35760575132453847891 -0.30223469868880581402 -0.41309560983446808047 0.034641414436030609769 -0.1034592874366642018 -0.35637560922395933316 -1.1486916589891829066 -0.1008976319742227179 0.65729652044912034725 -0.76794765683094257103 -0.85292117848281412407 0.072084321736779866097 0.42169015226409689578 -0.99525425138401202307 0.42981539818361658156 0.50910715815609841606 0.16589764647171678646 -0.42616692286032731296 -0.91262819030492381422 -0.35766480139440254282 -0.31104749431890760247 -0.21880100789519923987 -0.70523126402932478918 -0.89638895746795477226 -0.70405174976621687222 -0.31069686170006166614 -0.24532133109955342465 -0.2065795710276456254 -0.50006836009424038281 0.42302179918900367772 -0.67341022106104131417 -1.3205822066711765395 -0.56337096501119166003 -1.205266923474338947 -0.98770814853970900771 -1.2596540968566862784 -1.0524387771135965686 -0.50556679870479759309 -0.27388877782982740117 -0.098148332650984382308 -0.2026488352821460559 -0.21085222733338154777 0.14398128172085283838;-0.4102072879275973083 -0.039203820508909394127 0.28819675018938401001 0.50607787363547651616 0.17741469718401703393 -0.62374769575575028657 -0.86036262543741048869 -0.71496307580449114383 -0.91362515167501379132 -0.70313006647823783624 -0.8275869221828578981 -0.56684212103388131876 -0.48530569248536137295 -0.4576365758595587474 -1.5356634178608645769 -0.52814448836011029798 -0.74148815843749038557 -0.85350267568867654866 -1.0570893525435933746 -0.98053153576255946966 0.31282355446195214688 -0.89767316859892620773 -1.5645704323500133626 -0.0036986693679377860566 -0.74430473406280706072 -0.18210697603842868064 -0.60020200214718233411 -0.61899778031182173255 -0.45089994591046811401 -0.19136664893761373696 0.41322157765321265721 0.32245702546890486762 0.3920341148576745316 0.29879843656603921609 0.55858475298854770585 0.43410055631583566171 0.42965454670131414394 -0.16429674595513232838 0.061134998225602234234 -0.38620823539249343748 0.94278099267461457078 -0.090485833398956258544 0.11572774663687385166 -0.26270532113351419135 0.1326967120245262366 -0.57645891568251339532 0.2038150943340854282 0.47820715604649138841 0.42710027179815168719 0.1332020371883192722 0.097714593774597402476 -0.7018670102719781756 -0.99710064137332687917 -1.5265660274691683629 -0.65175879438402739563 -0.2520133050839974409 0.30966019363615887583 0.55724861716872375883 -0.76747944658817413011 -0.34341430970170516712 -0.78595711520755717761 0.28377536633161998259 -0.098833917205615975932 0.36251000680074796367 0.94540206887964428617 1.2953735058480193576 0.59112753883156599066 0.27687760325842497577 0.40244307766776615809 0.71933662634888673182 -0.69326438761532160893 0.51445014501795749418 0.44964010309414714772 -0.046663959611275465655 0.13411411930567226913;0.46190136311645885181 0.24710952874893088449 0.15796724853516871945 0.58436820594457317135 0.12396640500367006599 -0.18909304392161591091 -0.53519496746261840947 -0.31811946156575998668 0.0037337151216346453619 0.076568389557796781575 0.29161194366903148145 0.059564360885922373878 0.38750787529224295369 -0.13657101032317470191 -0.016697244723953969664 0.4091285981333634969 0.4437432931284037152 0.20340579336703915048 -0.27156879595728750099 -0.48976464887120890745 0.06396538576570449941 -0.37448053308916323667 -0.080971552896625303974 -0.051214504749902349523 0.2696209150591173942 0.675690274098599164 0.43908064315642925113 0.37700724380646444267 0.019840273006212952311 0.81860187686722474254 1.1786795775882736859 0.96395736323947545099 0.71669141882091202955 0.2440012815077186592 0.2457454317132952426 -0.17978571709115936939 0.0023687596205007712194 0.72694765861532728568 0.31150394310408474619 0.42181861293303507532 0.083782959946720289568 0.73119105087293967404 -0.86814849641293390103 0.51783349076511142606 0.5037598050504854541 0.50574172315340115702 0.40363710326959323371 0.47984687869410402872 -0.19466642848361051521 -0.20894641145235182123 0.25858587427483792354 0.068345579584711643739 0.0033953789278322399695 -0.19079787076960080805 0.32646504569540457652 0.50731209564149160052 0.42376480038620550905 0.27454867351314476975 -0.002284424333561563096 0.28913108570247386675 -0.13008131548315393644 0.26711903682749099653 0.22285707202975238439 0.23705683543516758993 0.22761287139119767975 0.16443589129479788125 0.40831870530867248048 0.44628363989134917089 0.34263728891973327384 0.18437119982496663617 -0.038782452850144186196 0.09020851849201413919 0.30935750151885837989 0.17803734508424817751 0.18600596731239832371;0.23339821921280892725 -0.21620314322814557229 -0.35757180057812598672 -0.48240504526501620797 -0.14141208322312912027 -0.35539328750352866537 0.33176919077412270198 0.3939405888578953463 0.10833450987554521516 0.076649981452857438025 0.097152670931240150964 0.15016245679428871784 0.6075868354681394079 0.098266686265999880767 0.17401379475537501196 -0.31132034729985352817 0.54030700756695493325 -0.85402673833028919237 -0.039260687546161347761 -0.071993824906323167223 -0.21753919814861538695 0.23748823051020465091 0.089557862880949704043 -0.11756465536984109232 -0.27556758065440861705 -0.18600497559798545577 0.030643419971328005741 0.38876099432970440128 -0.38740584561637658734 0.44083554875854763511 0.57556733002319615533 -0.26954195076702786027 -0.4335619362055924686 -0.10842314097683748708 -0.27333977535223374922 -0.25453842162305179153 -0.68644055766966227683 -0.098007462159067193497 -0.54824637540370202426 0.55855707534695409056 -1.7588905845424196439 -0.23447723910753265342 1.0722510102838935797 0.11734876566077594162 -0.65808955866024165804 0.30567934625230758217 -0.6590036020717859877 -0.33910262722062128882 -0.9580729294201871804 0.023175240799485092441 0.62044824949578825102 0.31006976371368738521 -0.012284145249892733029 -1.02570403477733052 -0.41651855110077368183 0.10790998723363573464 -0.15726192439891062413 0.17676536883953444801 -0.41451359634983947489 0.022237507254682965796 0.34240637647233884699 -0.034309027464611376035 1.0858823260472432182 1.0348543036371060655 0.86587084070152864346 1.2044662227013960276 0.81326428738828548948 1.2217651712408765796 1.8084413562015240196 1.5242758763742729755 0.021757660848181807622 -0.14400772283998269918 -0.32720386221886987865 0.2738127805257393188 -0.33077306763324310079;-0.055594120954811303281 0.08583180896148284722 0.11074305403360847067 0.4755904887917648538 0.4285212436218686638 -0.070276825118387106772 -0.075184792767404279301 -0.1210078861591682986 0.40005567609044989652 0.11300156580302524179 0.51099336761318081557 0.091229265816264129563 -0.023532296956120673376 -1.4355363907025380232 -0.80944633439015079013 -0.559759996949507177 0.20692432867461402202 0.21145347152155458126 -0.63508847642286481161 -0.83380052697488682423 0.35418052170880981455 -0.36271101890327123174 -0.040873811518828281897 -0.17220543189665940553 -0.033954299057834202991 1.0668590870408436455 0.64681095909534991328 0.62515563939110985192 -0.22167257730210213063 1.0809907198937831474 1.400324171363894532 0.83061750941922973812 0.44552333851414355204 0.68808855519488909547 -0.094531527450623709097 -0.83805398728297397781 -1.3315469226009220005 0.96781785912026507823 -0.18072613165800904822 -0.058219930311350046037 -1.8259491984324200953 0.79126292528052100117 -1.3621759057122402314 -0.17446257057608127727 -0.84796972158681294118 0.62100353533517882454 -0.0028090326331058285483 0.33808662769863750963 -1.4516768847675913801 -1.0247289198511959629 -0.38901487457217209798 -0.34818921756881204832 -0.31570206281612056554 -0.67004515713436985092 0.034875684279113507158 -0.14061952021965942738 -0.27860361335139943728 -0.4223176194183074772 -0.057505136309158155772 -0.4102623142198371653 -0.0912534457252538872 0.24315852340475890836 0.23845270727868517202 0.070942384755160722842 0.62647347603417036233 0.9259450890695004599 -0.39012649581005737209 -0.19991355461481277733 0.41372233231092009342 0.45705707514550186765 -0.52854346198574830851 -0.13212790029063747888 0.03876243433699493729 0.15168120590656899993 0.27208059423324265635;0.15753592819899150945 0.19603480038619383596 0.17381884674611991493 0.24891914383910873632 -0.0097896120905418791691 -0.19737037637720761252 0.12927343202215754725 -0.26829034030256981858 -0.14502094939300164134 -0.31573410682630259627 0.091790799380839324662 -0.36401470265150825956 0.1582150070025584998 0.025652987588009826952 0.35269505106967513619 -0.2562965157455373566 -0.093775497330994619927 -0.28164635674624788342 0.00159132315912587953 -0.22918121224544987791 0.23841257625553161081 -0.097641821122796221277 0.10592394864740367622 -0.40725975213118831286 -0.024476863001036498757 -0.19194430194639558462 -0.24368237737372464013 -0.12402583919313797667 0.063718193796863997758 0.14828294884707129975 0.22676291707034518241 0.11158407246192171558 -0.18529472168864138948 -0.17634669835258759418 -0.12134144128741984614 -0.099053021530646420678 0.090106680931427707293 -0.085903634818054713795 0.079883838524057920738 -0.35693960508962829792 -0.17652617946584070463 -0.3625664659390442357 -0.055949655760568518803 -0.17465222902181437581 0.044560594976198381056 0.17243439975998395286 -0.03285708842683640607 0.0072269842798618512403 -0.2057089843537883711 -0.27851846361036902699 -0.29986821791931661529 0.046778983239709769071 0.30447850904940826355 0.029075995338767635784 0.11848871307349911897 -0.030158091793245137696 0.19820815336516700578 -0.01655160570264703479 0.15968406312173585859 -0.049856905313047934769 0.25070704159506157493 -0.20034007993907262946 -0.021840094300598054261 0.12934071371756999946 -0.22008938765683996874 -0.18498578317232591828 0.1105075714837726597 -0.10239773990633219136 -0.4608039053091468884 -0.52271664946284845943 0.43534613068553834614 0.18147937264863586715 0.059254120296541028245 0.18741791050153511211 0.070482136775736919931;0.0094673297025799803273 -0.096283819372342746568 0.28173908935752262073 0.20376509166533768314 0.26827542388343672553 0.40290910572154636782 0.26248066389939800347 0.14263280683455309417 -0.001415658859965962784 0.14399928106778642212 0.22460214633620237401 -0.23744600693281214809 0.13680427559126992487 0.11353621513255739151 -0.55103949454989342716 -0.17296258501019071141 -0.39235571392710727467 0.26654733693005944195 -0.26884500512102421643 -0.30143183998892453257 0.2120656968339023063 0.30228892977506255368 -0.27309459849695938427 0.35070862561459786866 -0.26212489544279893305 0.034841319760749750456 -0.18464985698461261476 -0.12084738197446691366 0.025787005920451765151 -0.36435912455123270481 0.14289725155005930657 -0.067151874342327846912 0.22172202350033687335 0.15034994656964767445 -5.4489453414790318606e-05 0.088418356966361549842 0.091847191394958574429 0.27838316196913531764 -0.30702952459271959373 -0.42289876566661460666 0.28998550404907480482 0.11624536315542731424 -0.5720217255972210868 -0.036691675703824470911 -0.16794248841913450576 0.020217966199789355608 0.15349562319642667818 -0.19792172603392921282 0.40782578665547392083 0.24140790935235401093 -0.10297442577463444824 0.18875723497630153558 0.067120639233724549433 -0.039200615487162485118 0.09265369484450788895 0.14173039080433763592 -0.066251752052664827919 0.0039640590508638546066 0.48806034091642996886 0.31426265299860378644 -0.280534366307809091 -0.094850567260136270376 -0.31046395710177221439 -0.022578570936726594792 0.16347633264956815125 0.25475215848848370426 -0.16079153080389932406 -0.18532574806269652701 0.45342925894189656244 0.62812509195908738935 -0.14374555562783089546 0.078920605805995927562 0.19521297238118515138 0.022769811047614389038 -0.099442977372657212487;-0.13505777897435169987 -0.29193533774783153589 0.035833601956302148228 -0.55826474210333010273 0.0016015245017620464117 -0.064675189316204639844 -0.54316537367155037774 -0.97952764449157658788 -0.53869519379092956068 -0.047902813795305664024 -0.049514732385084317401 0.082101737715781553106 -0.3697827305941246423 0.092674126852063554161 0.087802562408230963586 -0.22928665086828844966 0.090763730875755399552 -0.30319530928744331533 -0.43653681232573132709 -0.037182878071317641833 -0.25216529249227004339 -0.87582527283144062658 0.50337136596995546434 -0.45602768972618112908 0.11768016075337747739 0.75866162059968067499 0.65121380759986990938 0.38629255636300435794 -0.25909689636201249652 0.99902456606977829701 1.1066116373384791149 1.1682574763875384072 0.44918454116309541879 0.59564633609932760017 -0.23978630455295585344 -0.27919298103059736471 -1.0015229180979945411 0.46048938501590708228 -0.18273095677655679103 -0.013190693189698713197 -0.52826012177665038205 0.6439730527385395531 -0.99706699943888621451 0.81265851870235006338 0.70374008631975282224 0.18563345272261858043 0.37565839864246364233 0.43479098899704993197 -0.7187866737734115441 -0.36880191639044701546 0.21209410240536558101 -0.0075620094228664828939 0.37455894784373161555 -0.25025410764292399524 0.24144437285685996231 0.68576274931409886282 0.97903723120014052306 0.58438680035819479119 -0.28809656213649437184 -0.2286774447422794676 0.17840528918440912154 0.18840867282534703997 0.37220316551005278027 -0.23936264411052882162 0.011301628559550276967 -0.85040769162725615704 0.13234208761742863314 -0.34036927252404003408 -0.049678369412608114342 -0.050822540273112601361 0.049253411756783320452 0.57567122732557862719 0.49038113632809277043 0.44221806049974465846 0.25465006645130883189;0.30285030345389785111 -0.025549747693446811514 -0.33920246379014795668 -0.4028159118243373471 -0.15970166309672895188 -0.033662745177699730792 0.043852295644219524418 0.21873821847048988132 -0.67385861826686443976 -0.048254696425230038381 0.20022302092935495565 0.046668247396693507412 0.30788339552641241781 0.30830776715311336567 -0.017155036977801213505 0.91259440259080037983 0.061076967465791026646 0.94717191576217441007 0.82804095083199324989 0.45673972762450165686 -0.37255276428264511024 0.22071189464342255704 0.13936200747519905674 0.086191804138254099477 0.41382332974386643043 -0.056261871288821228843 0.0099103035924634173826 -0.30077566493183727214 -0.040369310817496173449 -0.32294576267927965763 -0.71348971583740727898 -0.22473115173562321911 0.15916637431651237122 -0.20373069782792968541 -0.30934646365379081523 0.18665394119737091505 0.66355585645962300578 -0.26834446850094045844 -0.52880614910869139234 0.28471102650522167599 0.96386780633875945856 0.058846393044804282124 0.16503637939766452325 0.3739794202288193592 0.55075026701418916542 -0.14277461757084963789 -0.008646876138131882189 -0.0083370116939634284631 0.37932992135909110454 0.45127622027488478729 -0.33359380627820334198 -0.18516615353808227318 -0.11024668287902535113 -0.11072218448681554748 -0.029605946422598276857 -0.14535598813089700698 -0.10326758566753913016 -0.24247331213634876201 0.26300583117296921776 0.1638141089295679087 -0.33398489617711785149 -0.36149050952590305874 -0.54474891112734924459 -0.4478631457623894474 -0.622757968829983799 -1.0196847702858824469 -0.21888422273961569142 -0.7118836565568223973 -0.69139772099706531261 -0.53152020815928058273 -0.081405678149111898589 -0.1602338581866015188 0.1368329847743881833 -0.50621236848271977671 -0.35456937721889614235;-0.004589649928957810314 0.16490324690780883143 0.18522767818106739002 0.11977683198948715915 0.15742400764171241012 -0.15682798635894837358 -0.060011119790740238833 0.11281519641952254818 -0.61958347689213633114 -0.38649143491086673796 -0.36435931718876829466 -0.38337624332629832713 -0.33750040333558606331 0.074441027451997904274 -0.52423997913416586769 -0.29077791469725272622 -0.2269450579131079837 0.43980145856590424636 -0.72313553247672535118 -0.33018232032962480105 0.29980325706326649282 -0.3301412046010879231 -0.17595665058933016023 -0.17452676537640873788 -0.26872083190347001436 0.7301919269636201193 0.22321175987650360151 0.020050383772788792774 0.34945190815521193217 0.23599946763665358151 0.61268968320693584229 0.28487059224424016168 0.13500856281531364855 0.76693075152601009048 0.58557408422976164886 -0.34116978220601451577 -0.43227049199174288896 0.80400258982640449013 0.34875789875210516655 -0.56197008296668249372 0.35462248089609449408 0.18639084429320978975 -0.49047098574284808681 -0.09905823358455408123 0.29541425156812245456 -0.21799902499983550563 -0.17188960045695975132 0.05046492239375192923 -0.68022497107496293633 -0.88765291485886199663 -0.1999060383953288611 -0.29575063466006201729 -0.10683193107718834403 0.089264642207038502608 0.19825042272072529448 0.64250314112305284553 0.504114101137407844 0.14396350849819994355 0.35269474987459514814 -0.26690254704531957142 -0.14521785515008892031 0.068540198989949702169 -0.25649682166078641155 0.21513276861971603049 0.20570220032576727598 0.28775059101245714643 0.16957534050010625304 0.058748046810686342656 0.3683405248590878589 0.21397842032906894127 -0.057952420904864507256 0.17838101056755614748 0.12176398351887801619 0.27264901336948788035 0.11076228422192659073;0.24593771764686431225 -0.011731391704416754829 -0.30525718180557104287 -0.16944364648342113977 -0.023292220300486114054 -0.057560086184525870168 0.026253525696588998067 -0.14710124516181377619 0.050037390205168723323 0.21439072882009355125 0.13172320705454901302 -0.14814071493236916077 0.09302651823026490685 -0.22104858344815345172 0.21863422888213085438 0.15149572697993599069 -0.20056626252964182555 0.15178688605762885588 0.22334560916216686377 0.25591241901365491263 0.13290559223140271938 -0.13969269666746503278 -0.12863665765209228442 0.077790137269527895314 0.24856702344987977038 -0.053862734303666323643 -0.25897638772565367837 0.034151437310344534559 -0.045057425683023337448 0.088165899848802256611 -0.14261267479262043634 -0.11076561002597042072 0.024774427765228496795 0.049734563227965142285 0.23675122148531613231 -0.23425302093431973893 -0.11194501599664706537 -0.26043354734927243177 -0.12107293541153835159 0.093025316412472108807 -0.18972865540014607899 -0.094725223793990565024 0.18212787974261818169 0.038244301219318217744 -0.1185313645764795587 0.11047699537060637343 0.0080412134840869547298 0.24478449239625760248 -0.13742349465603209691 0.18808673137462691982 -0.084384854645690329789 -0.092702003055545073584 -0.14369627163029030648 0.091318862421157193099 0.042747662773548335269 -0.1592286285503697052 -0.28316415136026312771 -0.23056899939209055117 -0.26745355946568244443 -0.0052440325332217801318 -0.2556479138918527072 0.23491072674857299551 -0.15552374552315181844 0.18377641087069462866 0.24355417474293442059 -0.14309427324950080296 -0.25818962799980094136 0.045754032623221245479 -0.087257424090219831703 -0.018026706150474105378 -0.25801472619663967656 0.25777279604304920158 0.19561139866662816122 -0.12029366922848186428 -0.14141949383625396219;0.22782794188708740957 0.14343121028759026059 0.15031586750354919424 -0.11278960084881398118 0.18919142443687753108 0.13567918836015094297 -0.22430293383946897645 -0.0063560776521618756255 -0.057830634093155364184 0.28766876044245820454 -0.14674125020827682997 -0.049413434103774148132 -0.23638974563762801817 0.15835719337421519382 -0.093262766519927667308 0.2737586873826030609 0.21081146990939084174 0.015186099485738036377 0.18126219947150765122 0.11682340478378369641 -0.17158878021462883878 -0.19826823184542283207 -0.018390936436061957465 0.28968925118688104714 -0.14224862679234129281 0.040197259137696575437 -0.096036711579977590558 -0.21659841507188778986 0.056379489452582844111 0.07627634566570261343 -0.056011480147589769174 -0.27942985911821727196 0.18734195676509324269 0.0077748074307601592117 0.030057480794423194898 0.18059654323750798377 -0.26579744515627928836 0.039963753998798631772 -0.22687115986758135677 0.15156312153199982817 0.15594779716809339942 0.034412495668012403616 0.26635590571720119124 -0.31721879182605933201 -0.0062527530562920688798 -0.1616225987902289718 -0.16744387423393167214 -0.08462312522100250145 -0.32522835229321112038 -0.23413358143573417824 -0.21386717861021820042 -0.24730802979167126887 -0.23509267442274126014 0.053830103151012886897 -0.16224468546288797755 0.14365190176970946134 0.081598660190204799769 -0.19587814659896551905 -0.072946741744156037845 0.24485292128785293708 -0.26639684633680921211 -0.17785496561110500369 -0.15907999260505148453 -0.25503013763333454156 -0.012608119163986984679 0.16582828027911211688 -0.25613829541320587424 0.1138126675239239799 -0.23607077023251551995 0.22419901346982828994 0.043787314502249582993 -0.24121984068227678155 0.078808648968731881412 -0.096904530825433071728 0.038390117148372662759;0.54491539136731637072 -0.029428380217979190764 0.39137357542069250993 0.5020894115659716439 -0.47667256881227931808 0.32808163606956725067 0.57318329722241534441 1.0421862574517930522 0.66506058194199080269 0.95977625761355256362 1.3164206065247892052 1.0861363843581766098 0.15781778027097975725 -0.19445098502523364137 -0.11034894233152924004 0.2641069533812395731 0.18886887963056084305 0.97901395791852874328 1.4841386005434560325 0.83155247912759622242 0.39042003832657951046 0.64038715543728408353 -0.3767987117973752853 1.164514224256113728 0.86141703974287953116 -0.40842427924952856566 -0.52754075504301345401 -0.533026858803569481 0.099722215556018928284 -0.74035033311483577911 -0.83648648800418368143 -1.1264201208571000823 -0.75364458325962957463 -0.57571873316759847317 -0.1526788642080635916 -0.19690575057342074583 0.020880190535303447263 -0.25345242263644990333 0.39236928748424043656 -0.40843731576341846257 -0.053406459526048506714 0.07721422510212314072 1.1564222639783192648 -0.55962649989399093631 -0.89675264681432542702 -0.078725639581713136028 -1.1094567525673932895 -0.6254610804217998199 -0.12146651772336393427 -0.044350436439711163339 -0.1907836781601236209 0.18979641582666620381 0.2750064549027073646 0.10247386877516570514 0.62693766439237375021 -0.057358194512035484691 -0.59051591877396847341 -0.717115418617342959 0.60152473283640028878 0.68053161467827716358 0.18366718797477632474 -0.074478440273552118378 -0.31515352381608441323 -0.028119812390073731234 0.24674976824266331432 1.1090796271884304502 0.26574629661532650493 -0.21470516529491415203 0.47155789051880270257 0.74916924567549547653 0.18478711452840995699 -0.84416742423825752439 -0.308267221812719594 -0.050706368442519064721 -0.071013628501978121044;-0.2158164490813985481 0.37591803405042728548 0.50775924492759094697 0.6339320838728960128 0.1838160053360526347 -0.22285647862093987959 -0.3516606939352209249 -0.13748632850598696553 0.62720307520058515838 0.36989366015452190828 0.51847020792728726324 0.60741398069490537548 -0.65192841124304690137 -0.68033836321231344613 -1.1150343222625256345 -1.4982790663205118875 -0.41334660243487653108 -0.44596547390907564923 -1.0580210535530136795 -0.73746578808440277353 0.54918209978612475552 0.025780543773609880531 -0.074659389841044726532 0.82671854285622348169 0.41298782124798161242 -0.15923434719679796512 -0.22585356978540405137 0.32823213229930625623 0.53167609843114282953 0.071931252424868183382 -0.45123304092157079381 -0.18913966807061111108 -0.28477897330232299078 0.14180634358372717907 0.25671622790292003558 0.10947267144243094661 -0.021602300222503038191 -0.33922524431710149306 1.4038633957458956925 -0.061885285252076850659 -0.3129904374057988492 -0.42407524750622338505 0.67162961955726652175 -0.65944962178011590215 -0.66198061364298632636 0.17607118187251608044 0.11636845460441810896 -0.032952815313060435098 0.31473608206411091137 0.17756435805703879582 -0.6723761070804069595 -0.21607121715763491498 -0.13361415852880620392 0.40625966534814028641 -0.067073678200522082737 0.36243472126800208022 0.18960890533959756654 0.24025898849717894357 -0.19020087133121932332 0.36366837963874021344 0.36051850375976679519 -0.23957867784044251103 -0.30577140514588196929 -1.596300168962697219 -1.6469965780575075431 -1.7142287257883996876 -0.51645755355815936571 -0.87559756952364653504 -0.89203188644742148483 -1.0057320465236028184 -0.20492000141401894853 0.19997528461319666326 -0.012292425284159004539 -0.014021304712890482816 0.11447542682427985783;0.0091328160149720793298 0.63063089777294867311 0.89975895197006217074 0.39741604076193814965 -0.079718602795774279324 0.26940031499725536346 0.59510864947836517036 0.49312698229896562152 -0.68514009523834817905 -0.61371458825264801895 -0.42450247663351264871 -0.52105330349953815627 -0.21258307555848765524 0.39430745484630208564 -0.44370835348984599689 0.48157448837804378572 -0.28963094138023975921 1.3605558738548544362 -0.30911566084262059873 0.2522661747919621722 0.84018359321271773865 0.29870690083931888958 0.4202646975045885025 0.21612177628804538077 -0.3785743969880226989 0.46285054760121019379 0.034486507173500977053 -0.11471126516030816234 0.89299350248231312843 -0.048101969025861529561 0.76913986905829889729 0.42678187199064809842 0.4422870425093981539 0.59718596341468810351 1.2618090444906753245 0.036431750981699255465 0.024489638329737876965 0.66073098554596509935 -0.50595875009020108148 -1.5816407141525381519 0.65898926069533492189 0.033926527051033043836 -2.1234681407581970092 0.19484169448032664929 -0.2686845524070921587 -0.28785392305974505378 0.09216306313839670028 0.21203641434364450813 -0.040154757188872451656 -0.19162762735528107716 -0.40436884227384123358 -0.582599684409870755 -0.45004998119231287568 0.21952979007014022939 0.98467514290230362395 0.43442599722644403837 0.21063901855571168231 -0.21962666624445362218 0.3905928329614365424 -0.39862344418483292019 -0.50212128518775622776 -0.23251066206832662897 -0.4205833848086505955 0.16519583791009884166 -0.029098313046326318432 -0.24563318344615775457 -0.53924878501331241498 -0.085519555904730884532 0.46972032870501873036 0.88441108937936196988 -0.11672777483197414872 0.0072237049504981594092 0.038629251976980583105 -0.49320572283521207924 0.096042781244805849883;0.12530663187232921052 0.017448127685477966831 -0.081142515774132020767 -0.045077475588382973082 0.35433236483253255367 0.44232832440498709436 0.36830319879838935293 0.20199897641811087601 -0.33658342501210558595 -0.20825269695110909529 -0.57082095177150071752 0.0025137678795247178978 -0.174039470647038369 0.19143906174368732764 0.43955506744164257737 0.42869279985749492168 0.42307116283917406419 -1.1113880584639717064 -0.49174281667486430258 -0.74654740293893184777 0.098297742682209365839 0.23078472272389183306 0.96139454918696620744 -0.43225844687195025262 -0.45704958129087014385 -0.60403865501569309338 -0.57852915662689041731 -0.057713682685177916665 -0.3005944290477541303 -0.47395222920554874735 -0.39690521564437469815 0.037768648074678771998 0.023698940277875453486 -0.82866388119493983311 -0.4845035329578075145 0.094202296116756928379 -0.38151888494678620756 -1.0283709749824203605 -0.34409345597066570699 -1.1530938407425528336 -0.96740428244133180868 -0.85370664675164609214 -1.0157123025269623184 -0.056818467360624243245 -0.72266431724877733256 -0.26306657419970197465 -0.16931592319684241055 -0.6461959550033693489 0.22260683627844810029 -0.088862287689085994735 -0.36906466392570563828 -0.41743174521953990697 0.79314460904373462746 0.7459832194898166069 0.49222606283614589451 0.30202994357220347421 0.28456266973897054173 0.38286644100111294486 0.46096177098420443308 -0.069480313404957277923 0.1022679918261303611 0.57034579641930815974 -0.21189182733395475755 -0.36693470650479503847 -0.68149377587627446573 -0.45759842055142879724 -0.34156148881658882077 -0.62876061789886494857 -0.62303715820323624097 -0.39196091638628194342 0.7896296249766970865 0.35739362940981184158 0.41974731326161063283 0.53228931254067357592 0.50719508081860109616;0.44422732915249379948 0.36110684518938618304 0.58116340074050854003 0.47869279657400598538 0.97729854311034547454 0.60395659646232802142 0.52704952547569439147 0.35562732595662482904 0.54552830909654659308 0.78029126321702058089 0.31171488586595513803 0.19245018052507822937 0.33282430058552664454 0.091495448326746900425 1.2398295939274748267 0.38828037000143011959 0.47256958933166820502 0.77568786113508114699 1.148276491352560269 0.84453807100756017601 0.51301980585509909805 0.06244675053402669318 1.1888337384183347289 -0.52332714287893034033 0.31202284743281633039 -0.25089210940484529822 0.094845847114682052537 0.16269963915991153547 0.3873966979446254455 0.18347584837152564052 0.38093789670154554194 -0.14036377250044412834 -0.3171492724221384174 0.24508670033188001414 -0.131296475413919006 -0.83575524824426083992 -0.78943726511974021687 -0.27208085981866153569 -2.2664887515518490346 -0.91898703989307684026 -1.7676536983150992199 -0.59036542843964023852 -1.8877233877885193358 -0.9827424745877175738 -0.92836043431776171797 -0.12632439921850549536 0.36285069549943010925 -0.067509879286106022622 -0.73825468892853263192 -0.77716954174591990068 -0.81411390044990028514 -0.147583103239089658 0.35073751332331531971 0.097742086633280253483 -0.34692683856962142075 0.42849317698560701606 0.87404097366892974375 0.8847392378722995776 -0.083014516454620712604 -0.014731301632068358187 0.073270662906067277054 0.083267652601996255957 -0.69102726268261094322 -0.016195775325931468375 0.13054298186014942629 0.11667364892950798927 -0.8914353599763177316 -0.01562174083546857134 0.45085577594454745443 0.1581223478379449876 0.34060378534026275466 0.8510116009839846507 0.75264969510091905835 0.17097876375435533403 -0.0081927004035277743721];

% Layer 2
b2 = 0.023495010244988304149;
LW2_1 = [-1.8970153518041030782 -1.2350750395310485796 3.6838906981312939948 -0.70741256165869159656 5.2130594131682936876 2.2840731691473843412 -5.5937437490480181879 -0.27979811101572449328 1.6128153854117210919 3.4483626260308644085 -3.4609324577895619335 -2.8897165969581815048 -3.778595747369092539 4.5787488642880269651 3.3064751309507873778 -2.3314859069358502275 -4.6263654686534003702 -5.4175700680047782498 -0.72400691892018043117 1.1326526100273948128 -3.7103362622686635319 3.2957809432062141752 2.4187412411781519239 0.081450395360376778853 0.4439606986953865686 5.587034211615854673 -5.3627926714989300194 4.3030894153258376633 -5.1178579638536456642 -4.1986152150930937665];

% ===== SIMULATION ========

% Dimensions
Q = size(x1,2); % samples

% Input 1
xp1 = mapminmax_apply(x1,x1_step1_gain,x1_step1_xoffset,x1_step1_ymin);

% Layer 1
a1 = tansig_apply(repmat(b1,1,Q) + IW1_1*xp1);

% Layer 2
a2 = logsig_apply(repmat(b2,1,Q) + LW2_1*a1);

% Output 1
y1 = a2;
end

% ===== MODULE FUNCTIONS ========

% Map Minimum and Maximum Input Processing Function
function y = mapminmax_apply(x,settings_gain,settings_xoffset,settings_ymin)
y = bsxfun(@minus,x,settings_xoffset);
y = bsxfun(@times,y,settings_gain);
y = bsxfun(@plus,y,settings_ymin);
end

% Sigmoid Positive Transfer Function
function a = logsig_apply(n)
a = 1 ./ (1 + exp(-n));
end

% Sigmoid Symmetric Transfer Function
function a = tansig_apply(n)
a = 2 ./ (1 + exp(-2*n)) - 1;
end
